function [y1] = matlab_ANN_script(x1)
x1=x1';
%MYNEURALNETWORKFUNCTION neural network simulation function.
%
% Auto-generated by MATLAB, 16-Apr-2022 15:18:12.
%
% [y1] = matlab_ANN_script(x1) takes these arguments:
%   x = 20xQ matrix, input #1
% and returns:
%   y = 1xQ matrix, output #1
% where Q is the number of samples.

%#ok<*RPMT0>

% ===== NEURAL NETWORK CONSTANTS =====

% Input 1
x1_step1.xoffset = [-0.399999106;-0.399998818;-0.399977311;-0.399985622;-0.399979021;-0.399979999;-0.399986526;-0.399989434;-0.399998636;-0.39999238;-0.39998511;-0.399981318;-0.399997132;-0.399991371;-0.399994352;-0.399997424;-0.399978755;-0.399979634;-0.399983108;-0.399975333];
x1_step1.gain = [3.33341256855009;3.33345511000426;3.33353387317525;3.33343956449652;3.33356894443038;3.33350615896014;3.33354429668415;3.3334035237002;3.33344164240803;3.33353047832582;3.33343224737955;3.33344710388299;3.33339716233333;3.33349609127999;3.33352377754674;3.33349458002199;3.33345781020373;3.33352408869344;3.33356957229702;3.3336287317313];
x1_step1.ymin = -1;

% Layer 1
b1 = [-0.82774316254496782541;-1.3453694764192405398;1.6732165414734034847;-0.92581406192455628634;-1.4025756852314859024;-2.0271717823663326641;-2.2408044449605926118;2.3750572040566129139;1.8147114146651937006;-1.9879548129221700226;0.70394588912322708651;1.8140009886432417741;-1.0598410631523571546;-1.0617850206713588257;-2.3498675382979556936;-1.0165109541962003004;-1.8689134220098475581;1.0140094644232844345;-0.86742412546863500999;0.66513535450584992947;-0.31722192954145522759;-0.85687172240646303223;-0.26829589831503153352;0.25332638878896990287;0.77121888012580430694;1.2767241560201350037;0.78206172609129775974;0.018279526881544660988;-0.041900536109028600762;-0.18645713530663562962;-0.62229723783033785711;0.27543011588654364719;0.14116164278255277642;-0.50564035536768303647;0.48955021529378367484;-0.29913324465180085587;-0.39467654674418622962;0.3541014580282942914;-0.27962668384846350866;0.39194537906731452548;-2.0959395397006042039;0.34667220860488034972;0.21164221393354101797;0.442253139550391694;-1.7587349777193976852;1.5665240721395254919;-1.7015021197293238586;0.79479535723292282778;-1.0841353653740697371;-1.0371918965918105471;-0.88415392019390215417;1.2978462501299454779;0.69743620886666068959;2.1416083646486812064;1.4448861212999781767;1.9831416037843383471;-1.1630043168741612813;0.97932790070119912773;-2.4932448822917181452;0.72736178607796764251;-2.1376992115795823146;2.1369593735957339575;2.1295122650659283892;1.6255347395733763527];
IW1_1 = [-0.015132609364603305871 -0.0082641128789116436587 -0.41512084665080722923 0.89658357175261915728 -0.27468656212367181801 0.2518630832747089654 0.025551465819550239073 -0.078779634901751688369 -0.038539788247431198964 -0.0044353351594372172201 -0.00086855247496394043932 -0.024215607177820550056 0.0063795102050937333577 0.076872869218981412787 0.32523941704984232759 -0.93400086518374558775 0.04852406581509607908 -0.048553162466592990343 0.0013759427382948547294 -0.077962445492718343565;0.18243763464258161422 0.4635175647636399221 0.15444438712267977154 -0.69200862990621092585 0.43094602733251224924 0.013031360637051899592 0.96166314048373957579 -0.36447354789996483371 -0.22770344579112070105 0.12447339843705806928 -0.131337291566531289 0.74362274087720026117 0.21106826084323199177 0.04220913389837504387 0.23356123075181312032 -0.1383660207550705401 -0.014379567378718857706 0.10723705329724894653 -0.19876738623038575637 0.74881631417656535632;-0.04313905203239973285 0.45548180893641776468 -0.31200272939176360021 0.17984876525500992361 0.59015733011174342781 0.054523252614323662602 0.63062196244312462845 0.21226365649950190706 -0.47826081481059984357 0.17454942353273961153 0.49357166635092775131 0.083616702073222484715 -0.41171602753870556457 0.26959475773866070636 0.56979390631324855487 -0.2524555373135419778 0.11028695654459778897 -0.20346327652216975035 0.039279285823719381487 0.18869860396631138455;0.1022941221282344243 -0.17081495605539911975 -0.0083020259142959403759 0.014670129579418201421 0.02877085933241805768 0.017901967113010241323 0.074121309324327866452 -0.05680229905192218931 -0.065572922279918122168 -0.021482496806809529138 -0.061218790348772533783 0.0068452110729227098884 0.2950496110023186902 -0.1646600351214276281 0.095315210295836394483 0.14158909610683814706 0.017239385817824370156 0.036618255579229402885 -0.060442317333258818723 0.031799152621887774584;0.094167479579504345666 0.90284707853925960652 0.19610102178005500706 0.038463344820728773144 -0.1036943858187414913 -0.81068221294128350873 0.043858139448598190691 -0.20217600681911665483 0.011859113800361444774 0.087704405540784208251 -0.034908286663190721266 -0.41322799378022118111 -0.10225260475045241937 0.19205399703860268068 0.22428349525084614879 0.04125237106489494654 -0.028543926536922170634 0.30326047883663692639 -0.85223684268208288461 0.099089872077364873904;0.01258540272780933264 -0.026655184494449219584 0.038025555727884539914 0.01131904194801613972 0.060153012448390247302 0.048623034648081493725 0.025460779543618722309 0.0025816218185026854233 -0.017131593164295709497 0.0087606472939602258315 0.017630055403865179525 0.0062283546419544550538 -0.81638527573765395928 0.91854521381844345118 0.10756469677518240569 0.071133099780903930043 0.078287585451035812678 0.047381889886192816996 0.0030004012801633271959 0.046030185865348939578;0.0093017931911539269291 0.0020639525171331049753 -0.071469319184571791781 0.1801071770171167874 0.070524872686806627797 0.027019215063255032361 0.048471974386864624673 -0.0001914769057476394551 -0.027057090062044292234 0.0063898929605363564976 0.011374124302588920279 0.011365829307820412425 0.077081734330387910448 -0.0020229268490647342969 0.074854965824176528111 0.010418004411254786976 -0.88283970889525309467 0.95710182538632793126 -8.9864823830627718333e-05 -0.008510573033180948016;0.013048667235998430772 0.0060543898910428708623 0.27214444694139749981 -0.40031380328062543539 -0.042226169005249253319 -0.007827052038262139258 -0.057438590052975163625 -0.001607348845968453472 0.018954291247389329356 -0.0032274831346594699474 0.0041585941727944834151 0.0045550618741133494169 -0.041328275561794483584 0.0001363187189295852076 -0.074006227452754785867 0.024517471685286340577 0.40411015360464386248 -0.5227897393897221745 0.0061395649133112262588 0.0099015953875979233895;0.0097206196724312285418 -0.013042204434288729928 -0.067024126631909597407 -0.024619723567886001719 -0.1264369582226179678 1.0474958961570193239 -0.024961439600362664293 -0.094910957433422815654 -0.042315054783105369995 0.01924893936209305656 0.048335704688882992486 0.0044300234357318255679 -0.069042726115125907516 -0.0013210875016519013116 -0.13473889946888983893 -0.043673961023707741358 -0.094564660193394600718 -0.023615356775225831987 -0.0071664087549719399789 -0.014089313355246470272;1.1246402738452518921 1.3468714552964198283 0.0081412140063149545516 0.018658904902139797355 0.0039336198790031621023 0.007343501461205171818 0.048582148493800984823 0.10374916331884249943 0.019147669614727556159 -0.090199864258209985768 -0.039235281595914751895 -0.0060529957527575995596 0.0064968869064276225239 -0.043197907329701523693 0.087924041991904164361 0.027153511397401072086 0.09665965963596877264 -0.033945354044829442741 0.044635529558829385721 -0.039066050210347223748;-0.032926799073261889261 0.031407393802973346264 -0.019432891874222004563 0.11664745934381814951 0.043427099450451568663 -0.35804399948386839148 0.00057344883832867389779 0.039473553349916756794 0.047580289990890339835 -0.11833916701122010329 0.067667137757686457444 -0.0074729592568386158519 -0.15081799265131842769 0.13162891994479944402 0.0055840922654368189276 -0.071955165847145188818 0.0018822628997445668263 0.25210929745667609581 -0.0099264746451807675531 0.0026918790591704384006;-0.0098308094382856051063 -0.0092512186520437612869 -0.0382530404868396956 -0.039435005574791508198 -0.078415377440460232172 0.023615018701410250834 -0.012995844581241994958 -0.0083253768241743440065 0.013050578437394291104 -0.0010185695591608007627 -0.013388413486667173624 -0.001302604807397757334 -0.075868720775127809763 -0.0014030633332299349315 0.68290696245656146157 -0.86709017093958462574 -0.041756344499302516793 -0.018541813303538275115 -0.0088181799119017162392 -0.018698194454087251754;0.083494301664599784862 -0.017262802990797042335 0.061350211673221390074 -0.0036410704740819422633 0.05961209358313139528 0.025461129394017512073 0.028240419808680757019 0.0045385992078079469975 0.04385179675981415448 0.016992061711554991288 0.04589119226497452575 0.032059407682470106304 -0.27753504466112577376 0.8097096599210965584 0.13369406646400852634 -0.44795511550674310675 -0.21909616273790050167 0.52496623242319306879 -0.00034828799888701148391 0.043406498781597774306;0.16852563974191742124 0.034629120892491482842 -0.065152955792401601176 -0.019161559935389992776 0.19181181607377548182 0.01700571959521825563 -0.42840031627008473558 -0.37336991924886142602 0.030953298244888193674 -0.18049210236712326383 -0.030125638861427671972 0.26263711743966228207 -0.081330646879906515201 0.020523898426969465481 0.026273022072771427815 -0.1409211032141896025 -0.054248816038176772558 -0.021775081593158138876 0.2773163317192803845 0.0057779457941823167411;-0.02011753319923493058 -0.0053585354544425671183 -0.035713128308798851307 0.043883106068217540841 -0.060421046703198554029 0.01639444639514225921 -0.020914323858640237325 0.037344647578496446838 -0.0025446494817604106004 0.0057984043015391860398 -0.88420842720758219269 1.1349831606817459839 0.052306893950085808775 0.030611106135275508583 0.12920795050866465403 0.095369828865802211415 0.12535916159851639984 0.1143871346496413699 -0.0021585507135434217965 0.016440509418254020679;0.0049709015092048638301 -0.032410689917317325737 -0.06213435985666884015 -0.042453692686088881358 0.019040679897525406017 0.059529950084227831186 -0.07548191188137906571 -0.082020389760170883675 -0.0087051283066240138508 -0.045910355781331277369 0.10891509791798198448 -0.65802152670639890708 0.035555157784395857723 0.021635717179384353348 0.13517726815849459565 0.024169653407730491007 0.017298250074291445649 -0.017944926536712008103 0.18638268928698276117 0.061326635379464485009;0.012490649716976524528 0.029711339116713177122 -0.00086682201586092872975 0.014277137058226573377 -0.0084563449969245075427 0.069366002783597238701 -0.061000313202675002233 -0.01732657540855945047 0.019418689104354961567 0.03004461435171631653 1.0535983758952005562 1.0268337380486687316 0.024670000908446794441 0.030476733381615335461 0.095786331595834425801 0.058379756875892696577 0.063863946710297381237 0.080694399505514963211 -0.076204844634596202724 0.030901713447643447408;0.027254635163823183464 -0.60856066555336485457 0.26549693247038569366 0.042320936142983801853 0.095667428451596162042 -0.33905319931052285698 -0.31731266585826783944 -0.033977507854262983811 -0.041649266252500434515 0.16003564887347651591 -0.08105038900537153701 0.0097394143372973029926 0.050442307389797047534 -0.18586305262533436844 0.037345855103595157476 -0.12098701839324335627 0.013755293270214021331 0.12875013471178592406 0.13669038010905343317 0.30049912681319884689;0.094898340938901579178 -0.11724711309401322779 -0.013168776533472635951 -0.019362833709963431228 0.081646914631021610953 0.070835918148414445117 -0.0065201252180822986265 -0.084043801159350464691 -0.047883265057349931604 0.02286516943155844292 -0.05047920746424859606 -0.01174539377905927176 0.13963797192323432195 -0.20610248924544463667 0.049454133066764258131 0.11801571224165745277 -0.030866841011090200703 -0.011464149379858689509 -0.28331632120780941841 0.012422749881491907537;-0.016456883314510020733 0.019545776876855269766 0.22631811088277856148 -0.69030154727381842772 -0.02948711527734727833 0.077187127079295994592 -0.32995375580571278951 0.76916610839015386869 -0.042754122234738151098 -0.010403391828261533691 -0.0093388945135682542575 -0.031629802888611044387 -0.019149231493377900232 0.020374876426682422131 -0.001574084537098623289 -0.045330100814887898386 -0.028363209768664101457 -0.007363014702547721578 -0.020710159479300330881 -0.011696364150909398585;-0.032417072976573813037 -0.033329125458374304902 -0.04093008503998266101 0.026407380465262052238 -0.074370061007271587306 -0.042499851992642639908 0.10269615518899992412 0.54444729148648007833 -0.011773204218577967145 0.0166434451399290681 0.011216534271340318496 -0.0167797335670008263 -0.0061070440817860430563 -0.00026706203787645065896 -0.014751313711525002384 0.019262889797021065519 -0.02791468761088401751 -0.0096572502544438072053 0.001941270826769693654 -0.01395014256029375975;0.27348793437933749395 -0.22429968258184287966 0.72049510037540998031 -0.42758934335488957279 0.50035484210893677037 -0.37374137045519778555 -0.10067908497059943618 0.57430391131271751881 -0.18903170945708483441 0.7718206890095542505 0.045337791778453866154 0.30866591522000663694 -0.07128902991254007504 0.17845480530156374033 0.19112233838361381011 -0.24458482842761922194 -0.41833842111144287079 -0.17669369589107222773 0.086639895836630564929 0.26600283869410079607;-0.063372823720600532371 -0.061463102304939218334 0.022109053267572134627 0.042087863729365022902 -0.074143181627180504423 -0.047197241180104571034 0.64350973983482462337 0.62455513612214053065 -0.0040428133760105657013 0.08431507448919720038 0.0071374727102437324905 -0.076798798265545642483 0.040480793156021356582 0.00014738893253508477538 0.017147208090087982801 0.082074118454907959985 0.019908445641493813238 -0.0046617488626535964064 -0.065951838710217661199 -0.02189663862622662216;0.095035066008985646935 -0.12609316263312969619 -0.0039176571750855898602 -0.021752656653632115868 0.017911281313139730542 0.021802684194331997669 0.049514764464675342648 -0.051622602136330436595 -0.01855062816642496365 -0.025050578618749298754 -0.063693816711250156315 -0.020998322002463449404 -0.96640741214066294695 -0.69715560723367053786 0.022694677733341443032 0.06689067088207169276 0.067183438593775970937 -0.067533302712302900606 -0.079052884183698421405 0.035771921907787919415;-0.018367204936929441839 0.03704681719555239644 -0.030009972105488395139 -0.048882983678708726016 -0.04653443912924196818 -0.078025654145239542459 -0.028701321849175863432 0.031182906667802309797 0.03409739894629340573 0.0053539697389440301864 -0.0063076001480597797266 0.076396676859156784078 -0.47096764304219157493 0.85501728176317748353 -0.29428533888809638164 0.86799158199161119409 -0.28982900471353895133 0.8246402987120392547 0.037295521156073603575 -0.077638888756173890515;-0.10720476919124434512 0.12849882278096361188 -0.032917894117384514929 0.0062680635426755294468 -0.072194584447046461495 -0.076163389754857840908 -0.078427171400860862249 0.041305853227247578408 0.065315717255287022991 -0.00167477759368683571 0.045755166119034941519 -0.01344633791700811272 -0.049743012908607130151 0.54692650185988711531 -0.088677205208087792054 -0.13126829501391648614 -0.060676254346931461636 -0.0026103310566029974855 0.081972840506344499256 -0.052156579179676802738;-0.00040066820363380775292 -0.30131197604946297064 -0.26392580575146917798 0.30629179204124035163 0.15193757248923175918 0.5875993270480011077 0.43118172237269208891 -0.13850675331334499907 0.057095240383863023192 -0.20603704180401816171 -0.077444597874117018788 0.028496035611313839248 -0.04738002334470382132 0.0078002410474321817388 -0.1216717527680920008 0.15927647814646983537 -0.19613599045811494492 0.074187015459390937 0.15627248633324808402 -0.01528209803636767887;0.35925941830749030803 0.20492062889461776232 -0.14440895213523616269 0.022533309533493632582 0.16522682069888583456 -0.057342304390536384673 1.2160228940572015421 0.06135929785189469382 0.035792862771922215326 -0.37737250008170625248 0.0280864313651107457 -0.00060094810285869076916 -0.18593629872743425158 0.050192360832835285211 -0.19345361601929714213 -0.28703856983251146984 -0.09872895820328582428 0.081732570102202042883 0.36497113071488207492 0.17368809692630771124;-0.53651963981989025942 0.22247587610771246691 0.32738541399101561691 0.21075814246185040068 -0.094146069804150939175 -0.28747239652780981478 0.13874064482531256459 0.19309005007980301061 0.10560302512188765589 -0.25254301739878298738 0.3006069471382302738 0.13589446975314770083 -0.19975471508819672706 -0.60431955256556824096 0.014924874240846651083 -0.060918446214862038979 0.80286763146953199488 -0.01176950284705242239 0.063807998376442506827 -0.16068420857002838065;-0.012056134081588402301 0.017070541594438010807 0.021475599296703635349 0.00017373677668762514898 0.05991298121049808828 -0.01615872564366340608 -0.0045295916924604591111 0.013852950863049318803 0.01428058705850266015 0.028214702042541478511 0.079192927372705765321 0.016678925929909389769 0.056121386241965533215 0.032929127572907945787 0.034307454597302250443 0.00089246021822412841418 -0.0038862910675086718808 -0.017913285171921675826 0.99781097693426346051 0.98086917745198287655;-0.096337053875113848322 0.04946779551336098063 -0.59627663734982749855 0.55079305682321999527 0.72289748365392969554 -0.57399564045053197425 0.40440723940835093808 -0.26098093519905479765 -0.086675584589010590264 0.29486540693373802791 0.16893626043183646024 -0.13846687636760782181 -0.22375668542453264198 0.19640708529763042933 0.3076349204271183746 -0.48904871798858284837 0.20149247102710207691 -0.093285395016512673294 -0.21827449359551742702 0.086981952990173472262;0.27004453787812565668 -0.31291066366480702055 -0.0027805773357534200804 -0.014394904171114096883 0.0028482042496983301684 -0.11415577634519449846 -0.08392968045375114039 -0.059234052631480509088 -0.028507559272215730883 -0.061190288990144781067 0.018714914287305716573 -0.0143716843265737481 0.014378268499335869132 -0.03769313482689271716 0.080550108798558173184 -0.023976033098640141955 -0.077607171479402270453 -0.017159872583410243352 -0.015684355860589110909 -0.058100652132216185075;-0.018905801445575048936 -0.53769455274750777019 0.18990630695386012672 0.0072444287701369878413 -0.10667799664658017544 -0.21626404148834885155 -0.24304726140141744151 -0.20200601707666429596 0.63083061608142010357 0.28904577528819164201 -0.32016599906619597204 -0.29291287148962524833 0.029650958147567667983 -0.29829290566187754985 -0.50355627584654727436 0.50402378025677285756 0.4365590183595198237 -0.091573852479741452148 -0.28602850700805843021 -0.39473462262214642493;-0.030450818383913662302 0.1006891621555547206 0.018707334144677276178 0.039428090433908040413 0.55025594870221827826 -1.2353735946648876087 -0.040008530177344819867 0.020799753801592116287 0.010975583978589468701 -0.036624157106599754263 0.0060900393129639483758 0.02482038801805602074 0.02291637057248402734 -0.028899079904733331048 0.32731720684634435514 -0.69338313292471220883 0.064726299580297450009 -0.068310312066627534855 -0.045648846982412824569 -0.069217953897177192379;0.022304521425766082876 -0.059850202145398004316 -0.016543246601005284768 0.030415553992950049994 -0.71335146007219418784 1.2724245980914081766 0.024707750465716403487 0.037357552968554121053 -0.015221326552261885828 0.04381775892037403225 0.0061050045380961395075 0.049040929073847702724 -0.047191511963314045075 0.017551947451217572022 0.15717508789687426041 -0.50746101440824631368 -0.020844527635094162871 -0.054793815566607513567 0.075286210202378647804 -0.03684983737035832374;0.0054292855102593372274 -0.0035041116816701789287 0.031020336982400170678 0.019050672941479752931 0.047928206834154489513 0.018731254763752258619 0.018664641310352950848 0.0085236113245969781504 -0.014706249365100218518 0.0039959558776434143598 0.033996066628973031776 0.0059040338348092325296 0.066616521810865678144 0.0071923701088219046257 0.04365290932213096442 0.0076907957588264316481 -0.031468756780113120441 0.0021228978313102696458 -0.42206928914022423527 0.55264026781850961179;-0.35494118504199356767 -0.80669060622838806296 -0.073757259019645693421 -0.074260900749645322727 -0.16716221080460302861 1.0908430293832920288 -0.1952036429520941363 0.199327685605996896 0.11646793065539033651 -0.66850056980496430636 -0.47724783559171590763 -0.22579278573934841168 0.059514360084800446704 0.016844524419990975633 0.0080438179645745486873 0.4027743610282709108 -0.085990081197020409864 -0.0074296645756451226011 -0.25103101742802608198 0.34075933809509312278;0.063684131540942282013 0.0024197118949250816938 0.057435916529122811591 -0.0011829370852469035108 0.14166113834818136463 0.10707883310389242071 0.053855115473701538342 0.0093969583357450502115 -0.014039082663577132082 0.030757280333790274623 0.0038125943641341012227 0.01646907508490233138 0.075889975366330214568 -0.054272609421362777438 0.023403027072263465902 0.026655970948470258247 0.077006852228322028586 0.13014472532622728407 -0.050201909725259827311 0.021698834712021334431;0.1997189065874546976 -0.23611872377100234788 0.020239657880717961541 -0.021350532430101588216 0.10462173678983380243 0.10996571923461649634 0.1138015397813053331 -0.10937096442236793337 -0.11431415276886927601 0.019705402709848145876 -0.11379082359360731536 0.018123331905999757324 0.33472847705837893706 -0.50438731843787787401 0.082725525530208315894 0.22828227996944849831 0.013037580973734246015 -0.020792247789114030876 -0.22918637057606128238 0.085570045875511216438;-0.19533424200438717633 0.095412712209672553842 -0.45339512524492953105 0.63753630187544230168 -0.20844822742042865005 0.26209079580759708783 -0.16097191871347696357 0.2885482899797062184 -0.13695064233810544385 -0.073237016814026403844 -0.040705104430058057507 -0.12178106683467301852 0.13148713163788147695 0.023854419136754706487 -0.037645738741444903508 -0.26680841113290271194 -0.96256851364224871315 1.1945210718489591706 -0.0880265304903028456 -0.030146704585170644441;-0.018160442939178345068 0.0076197790537169112629 -0.77197763837552768607 0.80722176583704097208 0.05747538886109037487 0.020116468986764241694 0.12874531254815019254 -0.062817854680872142747 0.015047208477242971988 0.0074467012907787118875 -0.0025690021198810945521 0.00098329317479300482399 0.023378238875577602579 0.016438983794817278727 0.086372707163747938774 0.0019408931736098096466 -0.016095436938916130032 0.1172866072241195573 0.0125006504241857129 0.00058657075700094751195;0.4765757549209936883 0.20864771589412045572 -0.082704500825784899032 -0.5673163854217012636 0.62068692088930510486 0.11806475090939888561 0.037179216775181579691 0.13888482126514037351 0.66754396350343170319 0.68123784403881204597 -0.017943689578426225834 -0.17710763740955354217 0.22966758201897291558 0.47295771328202845796 -0.10250148141194193041 0.054362634737444258393 -0.61034741150619065131 0.41885276967809359494 0.34290399942002625089 0.044136397432554860809;-0.0021912430403372229817 -0.00082833520746517983174 -0.0073143261704165137005 0.024059369637783691032 0.020917162562013112692 -0.036887087675943397436 0.031201312798039192165 0.027770630391673413462 -0.0020676976964393821434 -0.00099475958135977694992 0.013348871867131651206 0.015362525985867727871 0.0069900168920853118087 -0.024282412700515849935 -0.67349252275221738184 -0.54131487675314371444 0.020123346063270985962 -0.016085842955458937165 -0.0035047222838333271129 -0.017318517937267789708;0.013242055945854440749 -0.0063396547364226330662 -0.082313461514431626731 0.27528506551539450031 -0.0019226249520243555644 0.037999841924099518609 -0.22806907255967170944 0.55186864291613924038 -0.027631085873499643818 0.041329004147618420006 -0.0031590079615153865422 0.0040594430246104727666 -0.011781651854016752037 -0.00085054746666401374704 -0.014345887868506922505 0.01865851875621078737 -0.035940208510554405574 0.019627034205295056796 0.0080473810693945328071 0.020844629106462064794;0.27311494344573933324 -0.32588838132662950597 0.034187885932983004544 -0.031982595793053285316 0.15849169695401388314 0.16195651512813988293 0.15908158332997610063 -0.14209095631491616696 -0.15146807290183234018 0.019782711828960977685 -0.14149456396221773979 0.024237384244381186132 0.43600493123905875725 -0.78326683476709357823 0.1330966993951467614 0.31990265535127471175 0.029314146637756180458 -0.0099296315763813102623 -0.30410432172890733415 0.12564868352278527053;0.022739141842168207608 -0.088963693385962078208 -0.85817204772242539068 -0.65895502201442368584 0.019653328568839490559 -0.11324847915866892434 -0.053498208841832955995 0.12287856560943402617 -0.036622092372989065168 -0.013801056478869845601 0.0023746566880675744338 -0.0034942386645250753628 -0.0065994502841767730197 -0.041332566735423147131 -0.084039305142265624538 -0.08080186631430187616 -0.015185777734153242668 -0.090773733343358226078 -0.0074481869462230424969 0.012677609358709632584;-0.55521309700088405936 0.69137105766917972272 -0.040391975352775173758 -0.016911445246151592808 0.061794386959736880005 -0.062475826350810573229 0.022115030687858170527 -0.023774544560303357416 0.015766460757229351641 -0.0025666856456368651249 -0.0038632317803434191791 0.017304447444285501329 -0.0076633441769442698852 -0.030665219561158710282 0.064205997658759852986 0.0023134392974772759188 -0.0029198138914060629487 -0.023709840206831086368 0.040129805784846039884 -0.053393732730363151207;0.12240010001239115534 -0.11159720494475701413 0.022957159757387712862 0.086492827463149457579 0.1138393096393632703 -0.18834928671118175703 0.10305846921901910818 0.053439191159962727562 -0.003816974114005446464 -0.069760625081654870083 -0.024705522025661372926 0.056938946187146372013 0.04417020593689656438 -0.19444028972549093348 0.029641412287325669128 0.050081876575693171083 -0.10169874504778714241 -0.26569065609901809655 -0.009326496548288338434 0.016923835833087329944;0.029391658812797875205 0.00309528205443140381 -0.054901324592107503264 0.084599305138522165604 0.15359660341365002911 -0.25213437712656971978 0.11565803047225126088 -0.084991708313768524197 0.092699040192478446287 0.0069621086895233887451 0.023283846465395878489 0.13016814211992486228 -0.39489714542578963075 0.68320734438955688095 -0.35092006883353549229 0.94260493594972305509 0.15003604834388686862 -0.41386953989289271272 0.044792819389953442144 -0.026675636536514914926;-0.35491388920755717606 -0.12026769887695734629 -0.20788463695445991153 -0.020284542821247000116 -0.2892989243506361996 0.15190295075875878683 -0.096345516894124433316 0.2636725298768492487 -0.12109958287748061323 -0.20099996558431124094 -0.096269594422292770197 -0.28137222385211457798 0.22857042560418183719 -0.27548247758557148357 -0.0026724932034032627265 -0.048529905651604816896 -0.14011904668610489222 -0.10829583411717977337 0.060142594151318840012 0.017581867054418321566;-0.19298914389869373243 0.13049689902572014777 0.013507514107649058049 0.09184168925744352896 0.055962758511556555396 0.4084864421054050232 -0.13919857082374439972 0.29038818596007148765 0.029434712904088666807 -0.30574764431494311223 0.0059758590351710657446 -0.043853922663525335413 -0.021865571808094241141 0.069200906063110509403 0.091576530973851821837 -0.078248940613225043128 -0.041640306914501185043 -0.0057258337355054252787 0.055554227805090859726 0.01448592580284456359;-0.0064316611071571494485 0.06581968292582336677 0.1129016570489206478 0.70733485404684437459 -0.10342418637443172302 -0.0056995427963122246434 -0.23400218991045113048 0.00043119290193762826319 -0.041615978837761677389 0.026541288724150589873 0.0096447157365157475811 -0.027186653214060829686 -0.04206951200330026619 -0.0028283620836328710914 -0.11181019304987631358 0.020012795010584057825 -0.086380433840448869742 -0.026717779101959288762 -0.048137477942074256843 -0.025158459398063603984;-0.017408808970570160274 0.015487274007765033934 0.048046327950616772584 0.0039126727668451341188 0.046231074418056627984 -0.088607102512428606578 -0.0083429332343969205693 -0.0043955536956656604541 0.0072012114641663979228 0.0079003471317917843553 0.035218085209102314992 0.0017091505599803227377 -0.16724680769529373658 0.52544977862131980739 0.077052327165945372345 -0.1833248996601821168 0.1407871707710166842 -0.49897185145848532706 -0.027266301425870866082 0.010443952397464739343;-0.027775543939220683626 -0.037502002356454990084 -0.17389584593252785383 -0.079244210206754012171 -0.18301620582351504907 -0.15590940483366666491 -0.025165032154261433861 -0.022236745995119475139 1.0238984608755350436 -1.2013694054784302967 0.0088191041754300588534 -0.029161832200833702478 0.052565274710451054263 -0.023213426682192523504 0.0094617000514868512123 0.021522209087137686434 0.076922594179881897958 -0.007608982854070649518 -0.012842335202402577199 0.036332379636292808089;-0.00032726378284670098453 -0.0043919504286983896552 -0.054173937079520576021 -0.064736681205822821372 -0.13204395054996043157 0.018379253785174357733 -0.057035415099925088067 -0.08103066810303437284 0.011518198326806051296 -0.00018498173189503727513 -0.022786291553857685593 -0.016408633677209939761 -0.10515362604140970904 0.055463972491247640062 0.32360574438768496819 1.074448788700373969 -0.09308963696574776292 0.010164517474005409226 0.015994019103153973155 -0.0066396753025889801783;-0.015916778451049839321 -0.020424855502970289123 -0.063631235580145467656 -0.043218393801241310193 -0.085258281957041992527 -0.096742963388312772088 0.037029646616468292475 0.0037437742501716629595 -0.92777993879860143345 -1.1385260836356088099 -0.018931981695355620809 -0.028818671603459668218 0.038879283042562697015 -0.0053927672492474938715 -0.043521012409417116074 0.0088168877028407359464 -0.035381014448164826991 0.0085454892176300683432 0.0247744046800338312 0.0022553198643066501086;0.17809264803365987273 -0.30950978123156108746 0.25941895181237312196 -0.068973922248161415038 -0.1059858665070860656 0.36443197295128060276 0.036170863656044729972 0.072591917939914762936 0.077925003009029450429 -0.62547898291503534196 -0.055042538101080860924 0.00217200079454526844 0.093171195456831543136 -0.096023921078364563031 -0.14957952411276587146 -0.039005125002336764328 0.02861122514219679655 -0.070163379248763174667 -0.44745758468681418041 0.057923881691669197591;-0.15045721185659471919 0.23576197881506330556 -0.18150358847063918777 0.11260002820446893268 -0.31612554428400380102 0.65768858796403606437 -0.38772901082806704443 0.37243813583168017267 -0.037223494226977918431 -0.21181666948693089747 0.018376217634038023718 0.08452648502930992791 -0.36147875939502610576 0.50772229184144801462 -0.40458547709393749559 0.60682932634014175033 0.273209719334712553 -0.81325486557676029964 0.061356112884565293386 -0.1431134315421097869;0.002175724831081645317 0.012712892541684618977 0.045087949481102895799 -0.0010183018651373401241 -0.28826639415252852672 0.52940871651396415043 -0.37690175778174717092 0.51774185094845737165 -0.0084875526783616175169 0.0073443529084306815452 -0.0018695701447858084285 -0.0032907169367782061753 0.027901847562319892493 0.0065134866812308588047 0.046999290751797241639 -0.0037483412933308926478 0.02341709302213155347 0.0086790622110795908467 -0.011546971234122460626 0.00037993220798615892891;0.0040838353434987009066 -0.031321174516811017829 0.0005809940250622606852 -0.012510014405472849597 0.0039057327669170223763 -0.045914513721581430572 -0.0064260410695259409519 -0.00057797626640776261428 0.015975278472386826578 -0.012894009140233754843 0.010373708662923090268 0.0031199115268908507795 -0.069717537706665777542 0.070134415689172474595 -0.00047211573321497197521 -0.030216983101264284495 0.017452166228903578243 0.019419879157351726401 0.16461098300711685116 -0.62266911647603095936;0.0081930768360399027633 0.0052356374071595331021 0.07824385403910535941 0.0060747045286945943951 -0.042361529395534100462 0.24415953536626253118 -0.78541446395875114117 0.92040800595564531417 0.019326486770003301063 0.015707641783457074874 -0.0057125560057588089385 -0.0060985535809954614234 0.042995197083522035397 0.013938224341089438738 0.074292353581350140113 0.015828181923430547501 0.054105937194840809934 0.012151205261279383538 -0.009559675624792207671 -0.012605373985648461732;-0.010114224686650682278 -0.012388166538691146312 -0.045996409041540280149 -0.027142618466614330808 0.85374085865250515237 -1.0127385691276677981 0.048871841191978258878 -0.16534821727370810351 -0.01531469360517728924 -0.021878208691908485051 0.0066540616214356435726 -0.0066108215981950432111 -0.024041269248818181864 -0.014947047179009366122 -0.067076665892638456801 -0.02338679043275683142 -0.056188310417779115113 -0.023110836556536239889 0.0044538929789691124664 -0.012890793137515413336;0.013315777737662865682 -0.026951931512030413013 0.49061579398890819981 -0.092914846378221990775 -0.019375428486264861805 -0.013857040577146624918 -0.17351383199445213901 0.17865163056073105063 -0.03887215388952353079 0.046979565173232193387 -0.0090704203089589270637 -0.0038772817278413316926 -0.010187423965198076983 -0.015382924628306799894 -0.050130220472562721234 0.0047608765259108910481 -0.023699109118988589268 -0.033638300700992343484 -0.031525661690696524242 0.033081982612834306967;-0.036036317389093658337 -0.0045668288295172996746 -0.17317850704725928912 -0.06372163847155495886 -0.1782248797762052972 -0.082510918244025788226 -0.075813433078370559559 -0.029623406385762857118 0.048239080067009450226 -0.0080393995732393475073 -0.085422736162886273026 -0.026323338104817080307 -0.25778398750245140603 0.045664816852213768739 -0.16350273539971621473 -0.031413717651585196244 0.0091612677504343924262 1.0038188988059806306 0.036235082996075855533 -0.044300204822894179157];

% Layer 2
b2 = -4.5638273779532809726;
LW2_1 = [-0.058627306733221071222 -0.021739125453710629599 -0.022494607206622291989 -1.5408465139281912748 -0.020935612383293715488 -0.64011258382275182388 -1.1908870017505133188 -3.0867313530928028875 0.50395791539756795707 -0.085942426743441990844 0.63509033365215150635 1.0610197796612166332 -0.17580615410386346564 -0.1973197165236288686 -0.21261232557881196148 -0.19143047411847585737 -0.10251328810343700304 0.096322123095250178348 -1.5547091385431883737 0.17503038724341779542 -0.85391394172779422345 -0.015474878567955836078 0.19970560974477377658 -0.082472121351532298728 0.046898025781063792938 2.0859417526501697893 0.078887841874780373352 0.01752901040338922245 0.019640697885242759668 0.063009053674880008411 -0.024826903079918302003 -0.34947101753915099653 0.0043481382001359092371 -0.067196475351419981958 0.084929606886576122782 0.33321812032756942257 -0.011583926441172613664 1.3385028238381726506 0.86277962031781041397 0.020200918151435969666 -1.5189000696128356349 0.009407572276018044688 -0.23713010990179780868 0.52907311673095702709 1.3886786474401744407 0.1400070316310373375 -0.40424744147787533555 0.57567032263348572041 -0.083932645510488970708 0.12886678389877209705 -0.27255976618968613678 0.4049945971356412322 0.37831577785799302971 0.13416441501793496816 0.36040351521590652251 0.11567217976848975791 -0.083597392515656315792 0.030987686285900865879 3.3476266018300653293 0.61706748009726797299 -0.95447274665073833511 0.94006430940090435211 -2.6307179896431724941 0.22086417375404043817];

% Output 1
y1_step1.ymin = -1;
y1_step1.gain = 43.8308130615823;
y1_step1.xoffset = 0.14891;

% ===== SIMULATION ========

% Dimensions
Q = size(x1,2); % samples

% Input 1
xp1 = mapminmax_apply(x1,x1_step1);

% Layer 1
a1 = tansig_apply(repmat(b1,1,Q) + IW1_1*xp1);

% Layer 2
a2 = repmat(b2,1,Q) + LW2_1*a1;

% Output 1
y1 = mapminmax_reverse(a2,y1_step1);
y1=y1;
end

% ===== MODULE FUNCTIONS ========

% Map Minimum and Maximum Input Processing Function
function y = mapminmax_apply(x,settings)
y = bsxfun(@minus,x,settings.xoffset);
y = bsxfun(@times,y,settings.gain);
y = bsxfun(@plus,y,settings.ymin);
end

% Sigmoid Symmetric Transfer Function
function a = tansig_apply(n,~)
a = 2 ./ (1 + exp(-2*n)) - 1;
end

% Map Minimum and Maximum Output Reverse-Processing Function
function x = mapminmax_reverse(y,settings)
x = bsxfun(@minus,y,settings.ymin);
x = bsxfun(@rdivide,x,settings.gain);
x = bsxfun(@plus,x,settings.xoffset);
end
